{
  "labels": {
    "labels": [
      "piezo",
      "other"
    ],
    "rows": 2
  },
  "mlp": {
    "layers": [
      {
        "activation": 1,
        "biases": [
          -2.0576501123515498e-07,
          0.08838727664939218,
          0.011590185066994926,
          -0.04374615580266613,
          -0.00024100247055604295
        ],
        "cols": 5,
        "rows": 13,
        "weights": [
          [
            -0.5759298979594667,
            0.1821801765792553,
            0.23090697685617737,
            -0.26262990945259884,
            0.5812875877839058
          ],
          [
            0.07340821863998709,
            -0.5002004020324957,
            -0.0013818411911402182,
            0.7807196246797128,
            0.5741464093371949
          ],
          [
            -0.354137665081855,
            -0.25887794875451786,
            0.29563780166950815,
            0.3834933715428244,
            0.1190759216977297
          ],
          [
            0.3564970519176605,
            -1.133287977396109,
            0.04114582708818383,
            0.4682106016368562,
            -0.11295552583379671
          ],
          [
            0.09816653264964564,
            0.020255126573164913,
            -0.313106871672095,
            0.1899213508396958,
            -0.27003751426486405
          ],
          [
            -0.023252255281844846,
            0.17108909022908467,
            0.21394708258635056,
            -0.48310445065143165,
            -0.23185899631512083
          ],
          [
            -0.1728733954623689,
            -0.6114556851498612,
            0.0028382988006411996,
            -0.6390125841611058,
            0.3922493653348821
          ],
          [
            0.4571974730348388,
            0.6914016847335877,
            -0.14702769213166234,
            -0.1097731688800035,
            -0.5534475604480035
          ],
          [
            0.37277132310692296,
            0.11183110138484281,
            -0.4949803669060092,
            -0.34205884467230546,
            -0.14835876393978295
          ],
          [
            0.2847446374062004,
            -0.7337947419628918,
            0.09907183468285123,
            0.45486820155467783,
            -0.4680668469849135
          ],
          [
            -0.3763127370317723,
            -0.805243192749205,
            0.3006237930865953,
            -0.3088617948192745,
            0.2034189283025087
          ],
          [
            0.41447687052502286,
            -0.4558099100855706,
            0.34445042310961355,
            0.16037966287400154,
            -0.5116382755685588
          ],
          [
            0.24307359046653898,
            -0.043277486834340635,
            -0.0016510251310954877,
            0.35370047883769345,
            -0.5620532717162583
          ]
        ]
      },
      {
        "activation": 1,
        "biases": [
          -0.03205089937488005,
          -0.0458201198415866
        ],
        "cols": 2,
        "rows": 5,
        "weights": [
          [
            0.7754375739068019,
            0.6251477842208738
          ],
          [
            -3.348167335172565,
            3.27137577299268
          ],
          [
            -0.3138136312897709,
            -0.1847315277244285
          ],
          [
            2.7250451776807934,
            -2.8339278353726387
          ],
          [
            0.4146483346790019,
            0.21715009208187663
          ]
        ]
      }
    ]
  }
}
